<?xml version="1.0"?>
<opencv_storage>
<cascade>
  <stageType>BOOST</stageType>
  <featureType>LBP</featureType>
  <height>24</height>
  <width>24</width>
  <stageParams>
    <boostType>GAB</boostType>
    <minHitRate>9.9500000476837158e-01</minHitRate>
    <maxFalseAlarm>5.0000000000000000e-01</maxFalseAlarm>
    <weightTrimRate>9.4999999999999996e-01</weightTrimRate>
    <maxDepth>1</maxDepth>
    <maxWeakCount>100</maxWeakCount></stageParams>
  <featureParams>
    <maxCatCount>256</maxCatCount>
    <featSize>1</featSize></featureParams>
  <stageNum>8</stageNum>
  <stages>
    <!-- stage 0 -->
    <_>
      <maxWeakCount>8</maxWeakCount>
      <stageThreshold>-1.7156763076782227e+00</stageThreshold>
      <weakClassifiers>
        <_>
          <internalNodes>
            0 -1 50 -1048662 -262270 -2109462 -254 -598 -1048662
            -16777302 -12194048</internalNodes>
          <leafValues>
            -6.7235338687896729e-01 4.8783132433891296e-01</leafValues></_>
        <_>
          <internalNodes>
            0 -1 93 -33557003 67482047 836630013 22019503 1439691003
            8476139 1423825080 283114431</internalNodes>
          <leafValues>
            -6.2612110376358032e-01 3.9325088262557983e-01</leafValues></_>
        <_>
          <internalNodes>
            0 -1 47 -33753092 2104885213 2113763580 -2229387 1962261756
            1434802171 972882397 897413967</internalNodes>
          <leafValues>
            -5.7228583097457886e-01 3.3458921313285828e-01</leafValues></_>
        <_>
          <internalNodes>
            0 -1 97 466960213 -1 -66049 -57377 -1678254083 -3 468826623
            -1074129416</internalNodes>
          <leafValues>
            -3.6739915609359741e-01 4.5042175054550171e-01</leafValues></_>
        <_>
          <internalNodes>
            0 -1 33 -17303554 -1029 820191278 -71324753 -463613266
            -244258838 1097007115 543670282</internalNodes>
          <leafValues>
            -5.3093403577804565e-01 2.9530563950538635e-01</leafValues></_>
        <_>
          <internalNodes>
            0 -1 29 -1342701569 249321439 -1146109955 -1468518571
            -1149247491 -1345233451 -369316355 -1929617923</internalNodes>
          <leafValues>
            -4.2612606287002563e-01 3.4386143088340759e-01</leafValues></_>
        <_>
          <internalNodes>
            0 -1 55 -268439569 -966377489 -386734366 -286003473
            -134909115 -2083555513 -512285883 -671620105</internalNodes>
          <leafValues>
            -4.0593606233596802e-01 3.1921884417533875e-01</leafValues></_>
        <_>
          <internalNodes>
            0 -1 92 -170920688 -975831632 -403843127 -979253288
            -771755631 234339773 -1783663352 98531263</internalNodes>
          <leafValues>
            -4.3590274453163147e-01 2.7284622192382812e-01</leafValues></_></weakClassifiers></_>
    <!-- stage 1 -->
    <_>
      <maxWeakCount>10</maxWeakCount>
      <stageThreshold>-1.6635977029800415e+00</stageThreshold>
      <weakClassifiers>
        <_>
          <internalNodes>
            0 -1 40 -3278898 -114 -1073741985 -16529 -1317458 -3149938
            -2097409 -45748470</internalNodes>
          <leafValues>
            -5.1039052009582520e-01 4.5904853940010071e-01</leafValues></_>
        <_>
          <internalNodes>
            0 -1 59 1425899511 -1 2147475455 -33587201 1442807229 -32769
            2113372159 -35998</internalNodes>
          <leafValues>
            -3.5423785448074341e-01 5.9550011157989502e-01</leafValues></_>
        <_>
          <internalNodes>
            0 -1 103 -133359 910639 -134219969 -570430033 -6292037
            13625343 -704654151 16765369</internalNodes>
          <leafValues>
            -5.2024412155151367e-01 3.3793094754219055e-01</leafValues></_>
        <_>
          <internalNodes>
            0 -1 24 -20482 -1498501458 -856101700 -1850015814
            -1880191524 -1932751106 -1921131299 -570425345</internalNodes>
          <leafValues>
            -3.5268884897232056e-01 4.0305453538894653e-01</leafValues></_>
        <_>
          <internalNodes>
            0 -1 124 -1059664146 1087303663 -622678290 551692974
            -463478962 1164967887 -16799026 -150995233</internalNodes>
          <leafValues>
            -4.8649346828460693e-01 2.5958025455474854e-01</leafValues></_>
        <_>
          <internalNodes>
            0 -1 110 1027350325 796818041 -1073872905 -41475 -1107896835
            -1346633729 -1073840131 -1355270660</internalNodes>
          <leafValues>
            -4.0076789259910583e-01 3.1911394000053406e-01</leafValues></_>
        <_>
          <internalNodes>
            0 -1 76 -88436936 -82120 -69206051 -8552900 -637547011
            -100941825 -553858404 -873918976</internalNodes>
          <leafValues>
            -4.4440725445747375e-01 2.8477501869201660e-01</leafValues></_>
        <_>
          <internalNodes>
            0 -1 3 -70582286 -69210193 1528991535 -276877557 -548143186
            -1418727540 -768213725 1363611462</internalNodes>
          <leafValues>
            -4.4897082448005676e-01 2.4417889118194580e-01</leafValues></_>
        <_>
          <internalNodes>
            0 -1 35 -265497 -285524177 -891329950 -521405761 -135042205
            108261309 -168856252 -202377353</internalNodes>
          <leafValues>
            -3.6387789249420166e-01 3.0335310101509094e-01</leafValues></_>
        <_>
          <internalNodes>
            0 -1 25 -831609678 -47674232 -859299073 -544594390
            -1103101784 -360119276 184289791 -72610271</internalNodes>
          <leafValues>
            -3.9384573698043823e-01 2.6728224754333496e-01</leafValues></_></weakClassifiers></_>
    <!-- stage 2 -->
    <_>
      <maxWeakCount>14</maxWeakCount>
      <stageThreshold>-1.8236812353134155e+00</stageThreshold>
      <weakClassifiers>
        <_>
          <internalNodes>
            0 -1 86 -1080049665 892970943 -131073 -33554433 -1934643265
            -1917276242 -1140981763 501088255</internalNodes>
          <leafValues>
            -4.4913730025291443e-01 4.3256402015686035e-01</leafValues></_>
        <_>
          <internalNodes>
            0 -1 99 -1 -3345 -1 -2049 1087238779 1124037471 1373598523
            1080554102</internalNodes>
          <leafValues>
            -4.6337094902992249e-01 3.7157297134399414e-01</leafValues></_>
        <_>
          <internalNodes>
            0 -1 51 -581962356 -10489905 -134301769 -2248785 1808601263
            -2107410 -170001 -37364274</internalNodes>
          <leafValues>
            -3.6636430025100708e-01 3.8638037443161011e-01</leafValues></_>
        <_>
          <internalNodes>
            0 -1 54 -18690862 -311174 -118466885 1932722738 -27833087
            2138526839 -2097153 -8948877</internalNodes>
          <leafValues>
            -3.8420712947845459e-01 3.4655812382698059e-01</leafValues></_>
        <_>
          <internalNodes>
            0 -1 11 -1141129768 -1347121178 -10629864 -1275883610
            29133999 148380986 83217868 502652159</internalNodes>
          <leafValues>
            -4.0137472748756409e-01 3.1509599089622498e-01</leafValues></_>
        <_>
          <internalNodes>
            0 -1 101 -19925071 1174273936 -458620931 -1061094176
            -436735599 32502173 -134237799 26214367</internalNodes>
          <leafValues>
            -4.8065191507339478e-01 2.0565946400165558e-01</leafValues></_>
        <_>
          <internalNodes>
            0 -1 57 1175323119 2078272507 -536972801 -46379222 82054396
            -8553219 1926503164 2067035972</internalNodes>
          <leafValues>
            -4.1221618652343750e-01 2.5183257460594177e-01</leafValues></_>
        <_>
          <internalNodes>
            0 -1 21 -21234159 -846233821 -1124208528 -521800683
            -199549819 -1070598377 286209269 -756550571</internalNodes>
          <leafValues>
            -3.4245494008064270e-01 2.8740352392196655e-01</leafValues></_>
        <_>
          <internalNodes>
            0 -1 19 269489424 823169840 -42672133 -1080025150 -193153027
            -1678181411 -33685508 -57646800</internalNodes>
          <leafValues>
            -5.0853276252746582e-01 2.0153373479843140e-01</leafValues></_>
        <_>
          <internalNodes>
            0 -1 104 -552683596 27306031 -541624585 1899079343
            -1779657812 -1985180787 2079824315 435026939</internalNodes>
          <leafValues>
            -4.0183106064796448e-01 2.1695572137832642e-01</leafValues></_>
        <_>
          <internalNodes>
            0 -1 88 -483178731 -547201 -139001857 -41963585 -1665154851
            -33577729 -2072251139 -96469193</internalNodes>
          <leafValues>
            -2.2338506579399109e-01 4.1043332219123840e-01</leafValues></_>
        <_>
          <internalNodes>
            0 -1 45 -134254485 -284709021 -226505050 -218103953 -463552
            -2013931661 1165845879 -134217993</internalNodes>
          <leafValues>
            -2.9218414425849915e-01 3.2217955589294434e-01</leafValues></_>
        <_>
          <internalNodes>
            0 -1 71 -463364 -12808466 -71353541 430835874 -17764919
            -10498309 788200891 1499409079</internalNodes>
          <leafValues>
            -3.2468321919441223e-01 2.7065789699554443e-01</leafValues></_>
        <_>
          <internalNodes>
            0 -1 117 -1050844 -1049759960 -287937738 -1606709712
            -210786392 1200422813 -975194739 -706879603</internalNodes>
          <leafValues>
            -3.3986121416091919e-01 2.6791667938232422e-01</leafValues></_></weakClassifiers></_>
    <!-- stage 3 -->
    <_>
      <maxWeakCount>16</maxWeakCount>
      <stageThreshold>-1.7301174402236938e+00</stageThreshold>
      <weakClassifiers>
        <_>
          <internalNodes>
            0 -1 9 -2587 -1913657881 1357627520 1089468616 2113928655
            94238511 1373455567 1357903855</internalNodes>
          <leafValues>
            -4.8199856281280518e-01 3.2655408978462219e-01</leafValues></_>
        <_>
          <internalNodes>
            0 -1 106 -1656752195 -1074790531 -1073741827 -4194625
            1023344639 -1929576449 502609340 436153784</internalNodes>
          <leafValues>
            -4.7306251525878906e-01 3.1439912319183350e-01</leafValues></_>
        <_>
          <internalNodes>
            0 -1 90 -33555081 -36307083 2130182141 -101318665 -570434315
            -570557441 1970656256 -265027725</internalNodes>
          <leafValues>
            -3.9911499619483948e-01 3.4543955326080322e-01</leafValues></_>
        <_>
          <internalNodes>
            0 -1 28 -1079255041 1061035903 -1084276737 1060822907
            -1346699297 -1078370305 -1610694983 -1370719747</internalNodes>
          <leafValues>
            -3.0523023009300232e-01 3.6779609322547913e-01</leafValues></_>
        <_>
          <internalNodes>
            0 -1 27 1599133678 2104881151 1071398846 2143271865
            1189915848 2012606462 1723173823 2147352571</internalNodes>
          <leafValues>
            -3.9243841171264648e-01 2.6430356502532959e-01</leafValues></_>
        <_>
          <internalNodes>
            0 -1 60 -991132504 -131073 -1646293161 -538185741
            -1628918275 -1347433491 -285651219 -304757436</internalNodes>
          <leafValues>
            -4.0289279818534851e-01 2.2219318151473999e-01</leafValues></_>
        <_>
          <internalNodes>
            0 -1 107 -974130699 86637473 -587344679 -996815395
            1440609585 151715641 1884402491 1703871</internalNodes>
          <leafValues>
            -4.4475355744361877e-01 2.3027624189853668e-01</leafValues></_>
        <_>
          <internalNodes>
            0 -1 67 1862143743 2003480302 -16830467 435954432 1846562552
            1987202918 -21987333 -4227265</internalNodes>
          <leafValues>
            -2.7675473690032959e-01 3.2655817270278931e-01</leafValues></_>
        <_>
          <internalNodes>
            0 -1 132 -2000372746 -1077936302 -151520257 -1280905677
            -1359020611 -1073807370 -1367480391 -1604286464</internalNodes>
          <leafValues>
            -4.0948313474655151e-01 2.0977841317653656e-01</leafValues></_>
        <_>
          <internalNodes>
            0 -1 48 -978907627 -8437793 -268476929 2105404714 1223760060
            -188627 -387661889 -1736862</internalNodes>
          <leafValues>
            -3.0381903052330017e-01 3.0536127090454102e-01</leafValues></_>
        <_>
          <internalNodes>
            0 -1 42 -4239157 -1343609554 -50436163 -335544323
            -1477461938 74444670 -721473488 -676858571</internalNodes>
          <leafValues>
            -2.6302194595336914e-01 3.1273385882377625e-01</leafValues></_>
        <_>
          <internalNodes>
            0 -1 0 268436784 -1240449227 1064534002 933281710 -314278147
            -1347764229 -78100 -1952383456</internalNodes>
          <leafValues>
            -5.0500488281250000e-01 1.5737730264663696e-01</leafValues></_>
        <_>
          <internalNodes>
            0 -1 41 -1291912258 -134480134 1918372110 -1280067411
            -671161624 1928646644 1196714287 1366403935</internalNodes>
          <leafValues>
            -4.1887074708938599e-01 1.7857758700847626e-01</leafValues></_>
        <_>
          <internalNodes>
            0 -1 109 1009782324 -1347362979 -1073775171 -1342202451
            -1074069775 -1107632207 530275761 -1397224144</internalNodes>
          <leafValues>
            -4.5570912957191467e-01 1.7233219742774963e-01</leafValues></_>
        <_>
          <internalNodes>
            0 -1 112 -8390860 -1985564892 -675293930 -1187254496
            -171993672 78640636 2013263256 10481592</internalNodes>
          <leafValues>
            -4.2235365509986877e-01 1.9293209910392761e-01</leafValues></_>
        <_>
          <internalNodes>
            0 -1 12 -292638792 -1178980818 -1405425126 -1586319614
            206341256 -1997010452 -1603154740 206896902</internalNodes>
          <leafValues>
            -4.3428698182106018e-01 1.7438140511512756e-01</leafValues></_></weakClassifiers></_>
    <!-- stage 4 -->
    <_>
      <maxWeakCount>19</maxWeakCount>
      <stageThreshold>-1.6295542716979980e+00</stageThreshold>
      <weakClassifiers>
        <_>
          <internalNodes>
            0 -1 74 2139062135 -32801 -3182593 -2134017 2138857455
            -32946 -32769 -8702086</internalNodes>
          <leafValues>
            -3.3646741509437561e-01 4.5774793624877930e-01</leafValues></_>
        <_>
          <internalNodes>
            0 -1 22 -1050641 221245420 -500047644 -1058543889 -547358769
            51375436 1431827567 1440741311</internalNodes>
          <leafValues>
            -3.4202766418457031e-01 3.7089115381240845e-01</leafValues></_>
        <_>
          <internalNodes>
            0 -1 31 -2097170 -50441 -1090559326 -536871197 -206589698
            -513 -202638641 -1002061822</internalNodes>
          <leafValues>
            -4.3925279378890991e-01 2.5522133708000183e-01</leafValues></_>
        <_>
          <internalNodes>
            0 -1 125 -1621 -1544838229 -788532685 -520487182 -268501170
            -2072117418 -675633586 -671612929</internalNodes>
          <leafValues>
            -2.6570561528205872e-01 4.1147017478942871e-01</leafValues></_>
        <_>
          <internalNodes>
            0 -1 73 -146192 -4929 -1093637 2146635059 -1060367 -515
            -47246920 -12904465</internalNodes>
          <leafValues>
            -3.2055830955505371e-01 3.2071414589881897e-01</leafValues></_>
        <_>
          <internalNodes>
            0 -1 63 -27996460 -8431913 -360449 2012412466 -432731952
            -11205539 1815432191 2138522194</internalNodes>
          <leafValues>
            -3.5293635725975037e-01 2.6730191707611084e-01</leafValues></_>
        <_>
          <internalNodes>
            0 -1 91 489701205 -4907211 -1075856901 -148557 -1648492563
            -1 -1073889347 -1078116555</internalNodes>
          <leafValues>
            -2.7024933695793152e-01 3.3503419160842896e-01</leafValues></_>
        <_>
          <internalNodes>
            0 -1 14 -1075576963 -1084223625 -1 -1219109131 -1343238673
            -1929838593 1018727929 230491324</internalNodes>
          <leafValues>
            -3.3727574348449707e-01 2.4089457094669342e-01</leafValues></_>
        <_>
          <internalNodes>
            0 -1 44 -268476657 -1351680209 -318903072 -135266385
            -134270463 53983749 -234942207 -705168589</internalNodes>
          <leafValues>
            -3.2993054389953613e-01 2.4117510020732880e-01</leafValues></_>
        <_>
          <internalNodes>
            0 -1 94 1073741328 -1798377577 1421555189 -1107331405
            -1344274501 210601403 100488636 301953970</internalNodes>
          <leafValues>
            -4.0033441781997681e-01 2.0410515367984772e-01</leafValues></_>
        <_>
          <internalNodes>
            0 -1 32 -117964845 -9176429 767537079 -1129063288 -67388417
            -67109121 788766350 -263722494</internalNodes>
          <leafValues>
            -2.5498679280281067e-01 3.2815119624137878e-01</leafValues></_>
        <_>
          <internalNodes>
            0 -1 126 -882069762 -1147138268 -318845698 -1644688838
            -805410308 -1462481012 -270536961 -1057915009</internalNodes>
          <leafValues>
            -2.7877560257911682e-01 2.7506455779075623e-01</leafValues></_>
        <_>
          <internalNodes>
            0 -1 64 -998061924 -686248683 -562037251 -570618594
            -466422849 -273748754 -287513089 -959901946</internalNodes>
          <leafValues>
            -3.0900460481643677e-01 2.2747448086738586e-01</leafValues></_>
        <_>
          <internalNodes>
            0 -1 114 1031307069 -1073807401 -4196929 -1342780971
            -1459716107 -1140850690 1031778303 -1434468354</internalNodes>
          <leafValues>
            -2.8312313556671143e-01 2.5623419880867004e-01</leafValues></_>
        <_>
          <internalNodes>
            0 -1 122 168099775 -1155531849 -270536737 -1078501603
            -1528237121 -1392509139 -1392670017 -454063612</internalNodes>
          <leafValues>
            -2.3785009980201721e-01 3.0277144908905029e-01</leafValues></_>
        <_>
          <internalNodes>
            0 -1 53 -547249 -932961554 1626343978 1127885378 -429506045
            1077036835 1894782038 -159418557</internalNodes>
          <leafValues>
            -3.6816218495368958e-01 1.9269715249538422e-01</leafValues></_>
        <_>
          <internalNodes>
            0 -1 108 2142600465 -1886015490 -504502283 -977535000
            -939528024 1234960380 1978914181 79666428</internalNodes>
          <leafValues>
            -3.8497987389564514e-01 1.8413837254047394e-01</leafValues></_>
        <_>
          <internalNodes>
            0 -1 118 -1359680240 -1090850896 -84705291 -79954254
            -1610612993 -1645281283 -1325925188 -1644353808</internalNodes>
          <leafValues>
            -3.5058113932609558e-01 1.9513761997222900e-01</leafValues></_>
        <_>
          <internalNodes>
            0 -1 37 -1154287752 1064337017 1073557392 862355198
            -1612907078 -1074462737 -1623450934 -1410019386</internalNodes>
          <leafValues>
            -3.0140909552574158e-01 2.3029103875160217e-01</leafValues></_></weakClassifiers></_>
    <!-- stage 5 -->
    <_>
      <maxWeakCount>20</maxWeakCount>
      <stageThreshold>-1.7114833593368530e+00</stageThreshold>
      <weakClassifiers>
        <_>
          <internalNodes>
            0 -1 115 -134224077 1131413303 1362620978 12451647 -33554547
            13627211 2012215047 2013265887</internalNodes>
          <leafValues>
            -4.9163183569908142e-01 2.8654861450195312e-01</leafValues></_>
        <_>
          <internalNodes>
            0 -1 79 393486332 -11010569 2147434429 -4243662 1004077051
            -1073971721 1025522104 1023934464</internalNodes>
          <leafValues>
            -4.9343597888946533e-01 2.6858547329902649e-01</leafValues></_>
        <_>
          <internalNodes>
            0 -1 34 -8392721 -1347420178 1124058340 -1058017177
            -1611137201 75951943 1442305383 -973081129</internalNodes>
          <leafValues>
            -2.9758483171463013e-01 3.8990700244903564e-01</leafValues></_>
        <_>
          <internalNodes>
            0 -1 39 -574230644 -12210417 -33763377 -3149873 -78683251
            -314242356 -11568947 -37446708</internalNodes>
          <leafValues>
            -3.5294181108474731e-01 2.9768109321594238e-01</leafValues></_>
        <_>
          <internalNodes>
            0 -1 96 91197199 930883581 -134791377 -1385814490
            -1929379857 -1594572809 -279556 234737580</internalNodes>
          <leafValues>
            -3.9850920438766479e-01 2.1299690008163452e-01</leafValues></_>
        <_>
          <internalNodes>
            0 -1 116 -1027037425 -976556305 -255808894 -1597462870
            -120721623 1142607113 -101598421 16645087</internalNodes>
          <leafValues>
            -5.1339983940124512e-01 1.2534500658512115e-01</leafValues></_>
        <_>
          <internalNodes>
            0 -1 65 -17633302 -536965217 -8417345 199626250 -160563339
            -25166081 -86001603 1249840931</internalNodes>
          <leafValues>
            -3.3781796693801880e-01 2.7264177799224854e-01</leafValues></_>
        <_>
          <internalNodes>
            0 -1 16 -1099448449 -1619004289 -1075331099 -1075335313
            -1073807365 -1346421798 -1360805915 183336548</internalNodes>
          <leafValues>
            -3.3726444840431213e-01 2.2720897197723389e-01</leafValues></_>
        <_>
          <internalNodes>
            0 -1 84 -782436560 -1041105504 -407961617 -638845189
            -168429775 1358157749 632231193 361330587</internalNodes>
          <leafValues>
            -4.1617873311042786e-01 1.7771595716476440e-01</leafValues></_>
        <_>
          <internalNodes>
            0 -1 56 -496972280 -8434658 -152911937 1933577010 -146452875
            2136438389 -537440641 1996961652</internalNodes>
          <leafValues>
            -4.3923676013946533e-01 1.7869584262371063e-01</leafValues></_>
        <_>
          <internalNodes>
            0 -1 8 -5250397 -35652613 -185601498 -235934873 -135313757
            63956237 -505968757 1969225695</internalNodes>
          <leafValues>
            -2.5838491320610046e-01 2.9387468099594116e-01</leafValues></_>
        <_>
          <internalNodes>
            0 -1 69 1090159616 1006567038 -721494675 -1097662606
            1425351781 -1074415566 1692669305 1069497122</internalNodes>
          <leafValues>
            -4.2843738198280334e-01 1.7277571558952332e-01</leafValues></_>
        <_>
          <internalNodes>
            0 -1 129 1432223694 -270140573 1390879682 1622793179
            -807362746 1078263063 -671648673 -1059782665</internalNodes>
          <leafValues>
            -2.8083729743957520e-01 2.5537765026092529e-01</leafValues></_>
        <_>
          <internalNodes>
            0 -1 100 1618407793 -981779593 2076367999 2134605347
            -573117478 1062358864 -178275381 1886758738</internalNodes>
          <leafValues>
            -3.3195483684539795e-01 2.1775399148464203e-01</leafValues></_>
        <_>
          <internalNodes>
            0 -1 61 -318895362 -1040316854 1785856559 2037583370
            1781811277 1198702598 1461747583 2003251027</internalNodes>
          <leafValues>
            -3.6486035585403442e-01 1.8434068560600281e-01</leafValues></_>
        <_>
          <internalNodes>
            0 -1 58 -101681347 989069049 -1381041153 -76611602
            1927620093 -25870380 -34639873 -94932206</internalNodes>
          <leafValues>
            -2.1315826475620270e-01 3.2752925157546997e-01</leafValues></_>
        <_>
          <internalNodes>
            0 -1 89 91234173 2105350941 2136956735 494738943 -1745715779
            -9306145 402145221 1039929173</internalNodes>
          <leafValues>
            -3.6122378706932068e-01 1.8424029648303986e-01</leafValues></_>
        <_>
          <internalNodes>
            0 -1 113 2108531744 65400421 -4239 -47205074 -1077936197
            72347567 -637809223 270492088</internalNodes>
          <leafValues>
            -3.9461782574653625e-01 1.5710845589637756e-01</leafValues></_>
        <_>
          <internalNodes>
            0 -1 13 -1080321192 985198574 -5771908 -1543618642
            1056767979 -1930134534 471712997 230543326</internalNodes>
          <leafValues>
            -3.2723125815391541e-01 2.0159155130386353e-01</leafValues></_>
        <_>
          <internalNodes>
            0 -1 1 -177106608 833732369 2111826457 -744021999 -134217735
            -469780577 2140143583 1140859394</internalNodes>
          <leafValues>
            -3.2976648211479187e-01 1.9740225374698639e-01</leafValues></_></weakClassifiers></_>
    <!-- stage 6 -->
    <_>
      <maxWeakCount>22</maxWeakCount>
      <stageThreshold>-1.6858532428741455e+00</stageThreshold>
      <weakClassifiers>
        <_>
          <internalNodes>
            0 -1 23 -1050641 1194323951 -471338270 -202904089 -9437201
            122683359 -244320257 1476394927</internalNodes>
          <leafValues>
            -3.5553938150405884e-01 3.6332750320434570e-01</leafValues></_>
        <_>
          <internalNodes>
            0 -1 18 855587269 2139044949 2013216767 -34003032 1019035629
            2147352573 749027326 2142569384</internalNodes>
          <leafValues>
            -3.9961555600166321e-01 2.9038780927658081e-01</leafValues></_>
        <_>
          <internalNodes>
            0 -1 81 -167772400 -1 -3 -13 -50335491 -48897 -94376932
            -231342571</internalNodes>
          <leafValues>
            -4.0290236473083496e-01 2.4245573580265045e-01</leafValues></_>
        <_>
          <internalNodes>
            0 -1 123 -1041761334 -1419596886 -50372414 -465065238
            -855703794 88526402 1375728462 -673712297</internalNodes>
          <leafValues>
            -2.6819562911987305e-01 3.3733969926834106e-01</leafValues></_>
        <_>
          <internalNodes>
            0 -1 77 2076770128 -8438785 1857469885 -541380650 987299256
            -1145372739 968367276 1494290816</internalNodes>
          <leafValues>
            -3.7584778666496277e-01 2.1760351955890656e-01</leafValues></_>
        <_>
          <internalNodes>
            0 -1 52 -151060737 -828198917 -721420545 -863309910
            -583008769 -335954185 -340172817 -1058847514</internalNodes>
          <leafValues>
            -3.3432334661483765e-01 2.1206536889076233e-01</leafValues></_>
        <_>
          <internalNodes>
            0 -1 127 -268550146 -1246724300 -1879298820 -1649664906
            -536936196 -1778574284 -1208485377 -369270918</internalNodes>
          <leafValues>
            -2.4414223432540894e-01 2.9628318548202515e-01</leafValues></_>
        <_>
          <internalNodes>
            0 -1 5 -12910956 -1153442731 -289735979 1084740725 386984880
            492667184 2137355764 1345699847</internalNodes>
          <leafValues>
            -3.3547741174697876e-01 2.1140691637992859e-01</leafValues></_>
        <_>
          <internalNodes>
            0 -1 78 114199040 -1615282337 2143087861 -538544138
            204445177 -1661232261 431814005 501031536</internalNodes>
          <leafValues>
            -4.6953302621841431e-01 1.4296345412731171e-01</leafValues></_>
        <_>
          <internalNodes>
            0 -1 6 -210770302 -673251553 -251702592 1886388191
            -1312853365 -710950113 -260742643 -184682553</internalNodes>
          <leafValues>
            -2.7840858697891235e-01 2.4000568687915802e-01</leafValues></_>
        <_>
          <internalNodes>
            0 -1 15 -1075645448 -2047852846 -1481506893 -33698309
            -1207959571 -1938161953 268229817 -1998782020</internalNodes>
          <leafValues>
            -2.3616163432598114e-01 2.8258061408996582e-01</leafValues></_>
        <_>
          <internalNodes>
            0 -1 111 -439421083 1162717003 -1629583614 -2132825206
            -607142983 30133785 -204210373 279832559</internalNodes>
          <leafValues>
            -3.8337078690528870e-01 1.6239158809185028e-01</leafValues></_>
        <_>
          <internalNodes>
            0 -1 75 1448920368 -8391563 -71554113 -1069938238 -5778123
            -1246366159 -174246627 -172286277</internalNodes>
          <leafValues>
            -3.0483242869377136e-01 2.1273703873157501e-01</leafValues></_>
        <_>
          <internalNodes>
            0 -1 20 -8388874 -655873 -218275027 -9051281 -180884801
            -660753 -227294577 -252387156</internalNodes>
          <leafValues>
            -2.6532891392707825e-01 2.5548920035362244e-01</leafValues></_>
        <_>
          <internalNodes>
            0 -1 62 -538048280 1677674191 1953660469 2072709635
            -683523320 1114072162 1602205615 2136437011</internalNodes>
          <leafValues>
            -3.3411055803298950e-01 1.9105295836925507e-01</leafValues></_>
        <_>
          <internalNodes>
            0 -1 83 222301301 1576844917 1003879935 1927096186
            -807183363 -11585 -1078102033 1073552757</internalNodes>
          <leafValues>
            -2.9710969328880310e-01 2.0567339658737183e-01</leafValues></_>
        <_>
          <internalNodes>
            0 -1 87 -1117680 -705430539 125728182 958543216 -84158997
            -1156123638 1976125211 1953551730</internalNodes>
          <leafValues>
            -3.5378602147102356e-01 1.7159497737884521e-01</leafValues></_>
        <_>
          <internalNodes>
            0 -1 80 175116125 -42435075 -73884547 2019327199 762580180
            -25460867 -1393233940 -1166930312</internalNodes>
          <leafValues>
            -3.7385645508766174e-01 1.5608520805835724e-01</leafValues></_>
        <_>
          <internalNodes>
            0 -1 10 501211040 -2120421914 -242026572 -1060012600
            232686465 81042363 1157055589 1358518207</internalNodes>
          <leafValues>
            -3.9600282907485962e-01 1.5454220771789551e-01</leafValues></_>
        <_>
          <internalNodes>
            0 -1 85 -1287306220 -984129628 -1107601549 -4555150
            -237511237 165665726 1973383352 280843452</internalNodes>
          <leafValues>
            -3.8278654217720032e-01 1.4585502445697784e-01</leafValues></_>
        <_>
          <internalNodes>
            0 -1 30 1531224080 1932588027 -426186500 1964109587
            -100804375 -627843149 -60898080 -860590256</internalNodes>
          <leafValues>
            -3.4678369760513306e-01 1.7365586757659912e-01</leafValues></_>
        <_>
          <internalNodes>
            0 -1 38 -481630720 -33753635 2001680685 -1612977994
            273880907 -23122195 1280654719 -101766657</internalNodes>
          <leafValues>
            -2.0240060985088348e-01 2.9050526022911072e-01</leafValues></_></weakClassifiers></_>
    <!-- stage 7 -->
    <_>
      <maxWeakCount>26</maxWeakCount>
      <stageThreshold>-1.6353827714920044e+00</stageThreshold>
      <weakClassifiers>
        <_>
          <internalNodes>
            0 -1 36 -1343225858 -2064076882 -1969492260 -184550529
            -1711538291 -1930037257 1572862141 -100663297</internalNodes>
          <leafValues>
            -3.7968495488166809e-01 3.3535856008529663e-01</leafValues></_>
        <_>
          <internalNodes>
            0 -1 120 -269488221 -955259121 -490737118 1405091759
            -372379761 1204805447 -134236245 1409286127</internalNodes>
          <leafValues>
            -3.2256889343261719e-01 3.1226658821105957e-01</leafValues></_>
        <_>
          <internalNodes>
            0 -1 82 -570635148 -169910539 -1695547393 -33882374
            -536884239 -201884683 524222725 1006578996</internalNodes>
          <leafValues>
            -4.6829980611801147e-01 1.8008127808570862e-01</leafValues></_>
        <_>
          <internalNodes>
            0 -1 105 -573652995 301769471 -8474627 829696702 -1611747412
            -1663529042 268144125 972679871</internalNodes>
          <leafValues>
            -3.0192297697067261e-01 2.8442078828811646e-01</leafValues></_>
        <_>
          <internalNodes>
            0 -1 26 -193660034 -167903617 1073560574 -2303110
            -2048868146 -504216373 -1343386982 1946123098</internalNodes>
          <leafValues>
            -3.3531263470649719e-01 2.1283754706382751e-01</leafValues></_>
        <_>
          <internalNodes>
            0 -1 121 67500031 -1252674539 -537428033 -47124517
            -922750979 -1468924520 778037486 1290060480</internalNodes>
          <leafValues>
            -3.4943157434463501e-01 1.6789962351322174e-01</leafValues></_>
        <_>
          <internalNodes>
            0 -1 17 -1502101505 1064439671 661592763 -1476444426
            -1212351233 -1948199426 1071513550 -1411253258</internalNodes>
          <leafValues>
            -2.0784395933151245e-01 3.2187113165855408e-01</leafValues></_>
        <_>
          <internalNodes>
            0 -1 128 -201401874 -815354673 1371496608 -253160465
            -176234738 -949553321 -621882802 -255328393</internalNodes>
          <leafValues>
            -2.3821058869361877e-01 2.8610667586326599e-01</leafValues></_>
        <_>
          <internalNodes>
            0 -1 66 -285236534 1172309006 -352697646 937756962 115606022
            70595591 1915769590 2009038815</internalNodes>
          <leafValues>
            -3.1086817383766174e-01 2.1355891227722168e-01</leafValues></_>
        <_>
          <internalNodes>
            0 -1 70 1085765716 -303265 1649475071 -271089825 -531072299
            -9077019 -19595269 -294420638</internalNodes>
          <leafValues>
            -2.6045826077461243e-01 2.5028172135353088e-01</leafValues></_>
        <_>
          <internalNodes>
            0 -1 7 -1077949901 -2089028063 -222566765 -2063866190
            -1172853849 1157887745 -663239563 -721435053</internalNodes>
          <leafValues>
            -2.5827720761299133e-01 2.5604262948036194e-01</leafValues></_>
        <_>
          <internalNodes>
            0 -1 49 -561135154 -67240165 -9 -3162305 -135564097 -2108241
            -184555811 -187304185</internalNodes>
          <leafValues>
            -2.7465382218360901e-01 2.3691263794898987e-01</leafValues></_>
        <_>
          <internalNodes>
            0 -1 68 1585203760 -92599681 -17137665 866321954 -547922827
            964685693 -14683876 992952391</internalNodes>
          <leafValues>
            -3.7719762325286865e-01 1.6598686575889587e-01</leafValues></_>
        <_>
          <internalNodes>
            0 -1 131 -145691092 834742021 -421533020 -793741 2004119047
            1432647621 -135856241 -169380306</internalNodes>
          <leafValues>
            -2.1794477105140686e-01 2.8339174389839172e-01</leafValues></_>
        <_>
          <internalNodes>
            0 -1 133 185470096 1608252925 -1646379022 -1644662896
            -34253579 -101343299 500456957 -8905312</internalNodes>
          <leafValues>
            -3.1594735383987427e-01 1.8073999881744385e-01</leafValues></_>
        <_>
          <internalNodes>
            0 -1 101 -53479504 -988151855 -2146631755 -1073152016
            -436878960 30389209 1945907993 10579871</internalNodes>
          <leafValues>
            -4.6715655922889709e-01 1.3481761515140533e-01</leafValues></_>
        <_>
          <internalNodes>
            0 -1 4 -205836541 1936971039 -1375786333 -298322433
            2041547289 -614484199 -136857528 -1073236733</internalNodes>
          <leafValues>
            -2.5847402215003967e-01 2.2470191121101379e-01</leafValues></_>
        <_>
          <internalNodes>
            0 -1 72 2128244220 2103369213 -84987971 -612554760
            1052004349 1716809303 -1145684483 -2146821</internalNodes>
          <leafValues>
            -2.1808284521102905e-01 2.6940754055976868e-01</leafValues></_>
        <_>
          <internalNodes>
            0 -1 43 -748683442 -972135872 -125865114 -1066569746
            -308824251 1147017039 874993408 1357641573</internalNodes>
          <leafValues>
            -4.2568740248680115e-01 1.3075315952301025e-01</leafValues></_>
        <_>
          <internalNodes>
            0 -1 2 493096209 1412480883 -135848491 -1087063246 578119677
            -50367625 1014316476 -257937376</internalNodes>
          <leafValues>
            -2.8239774703979492e-01 2.0607195794582367e-01</leafValues></_>
        <_>
          <internalNodes>
            0 -1 98 -111143824 355908798 -1083162627 981285567 -63630948
            -1078314181 -1149716549 -1170489565</internalNodes>
          <leafValues>
            -2.5732237100601196e-01 2.1958440542221069e-01</leafValues></_>
        <_>
          <internalNodes>
            0 -1 95 147172615 -1312382141 2139979613 -270012446 81651702
            -1410155076 2146958940 212807578</internalNodes>
          <leafValues>
            -3.1694412231445312e-01 1.8067237734794617e-01</leafValues></_>
        <_>
          <internalNodes>
            0 -1 130 -24120085 -270013586 1501557664 -747243661
            -146889202 239259232 -623446793 -2144078601</internalNodes>
          <leafValues>
            -1.6705150902271271e-01 3.3166837692260742e-01</leafValues></_>
        <_>
          <internalNodes>
            0 -1 119 -1360014422 -2050297880 -134217991 -33947713
            -1619267649 -2000683283 -1355292743 -1380853015</internalNodes>
          <leafValues>
            -2.4969680607318878e-01 2.2473251819610596e-01</leafValues></_>
        <_>
          <internalNodes>
            0 -1 46 -1666727284 -1951421526 1616830978 -251789423
            2003688717 101169269 2088092797 -998781601</internalNodes>
          <leafValues>
            -2.6092138886451721e-01 2.1523484587669373e-01</leafValues></_>
        <_>
          <internalNodes>
            0 -1 102 -202967339 -1247506769 -171183173 1907047050
            931698623 96734027 -34211845 807590794</internalNodes>
          <leafValues>
            -2.7582728862762451e-01 1.9768513739109039e-01</leafValues></_></weakClassifiers></_></stages>
  <features>
    <_>
      <rect>
        0 1 1 2</rect></_>
    <_>
      <rect>
        0 1 2 3</rect></_>
    <_>
      <rect>
        0 3 2 1</rect></_>
    <_>
      <rect>
        0 3 6 5</rect></_>
    <_>
      <rect>
        0 6 2 2</rect></_>
    <_>
      <rect>
        0 9 1 4</rect></_>
    <_>
      <rect>
        0 10 2 2</rect></_>
    <_>
      <rect>
        0 11 1 2</rect></_>
    <_>
      <rect>
        0 11 2 2</rect></_>
    <_>
      <rect>
        0 11 2 3</rect></_>
    <_>
      <rect>
        0 15 2 2</rect></_>
    <_>
      <rect>
        0 15 2 3</rect></_>
    <_>
      <rect>
        0 15 3 3</rect></_>
    <_>
      <rect>
        0 16 2 2</rect></_>
    <_>
      <rect>
        0 17 1 2</rect></_>
    <_>
      <rect>
        0 18 1 1</rect></_>
    <_>
      <rect>
        0 18 1 2</rect></_>
    <_>
      <rect>
        0 18 2 2</rect></_>
    <_>
      <rect>
        0 18 7 2</rect></_>
    <_>
      <rect>
        1 1 1 2</rect></_>
    <_>
      <rect>
        1 1 7 5</rect></_>
    <_>
      <rect>
        1 10 1 2</rect></_>
    <_>
      <rect>
        1 11 2 3</rect></_>
    <_>
      <rect>
        1 12 2 2</rect></_>
    <_>
      <rect>
        1 14 2 3</rect></_>
    <_>
      <rect>
        1 14 4 3</rect></_>
    <_>
      <rect>
        1 15 7 2</rect></_>
    <_>
      <rect>
        1 15 7 3</rect></_>
    <_>
      <rect>
        1 18 1 2</rect></_>
    <_>
      <rect>
        1 19 1 1</rect></_>
    <_>
      <rect>
        2 1 2 2</rect></_>
    <_>
      <rect>
        2 1 7 4</rect></_>
    <_>
      <rect>
        2 3 2 3</rect></_>
    <_>
      <rect>
        2 3 7 5</rect></_>
    <_>
      <rect>
        2 12 1 2</rect></_>
    <_>
      <rect>
        2 13 1 1</rect></_>
    <_>
      <rect>
        2 16 1 2</rect></_>
    <_>
      <rect>
        2 18 1 2</rect></_>
    <_>
      <rect>
        3 0 4 1</rect></_>
    <_>
      <rect>
        3 0 6 3</rect></_>
    <_>
      <rect>
        3 0 6 4</rect></_>
    <_>
      <rect>
        3 6 7 4</rect></_>
    <_>
      <rect>
        3 11 1 2</rect></_>
    <_>
      <rect>
        3 12 1 1</rect></_>
    <_>
      <rect>
        3 13 1 1</rect></_>
    <_>
      <rect>
        3 14 1 1</rect></_>
    <_>
      <rect>
        3 14 1 2</rect></_>
    <_>
      <rect>
        3 14 7 3</rect></_>
    <_>
      <rect>
        3 18 3 2</rect></_>
    <_>
      <rect>
        4 0 5 4</rect></_>
    <_>
      <rect>
        4 1 5 4</rect></_>
    <_>
      <rect>
        4 1 6 3</rect></_>
    <_>
      <rect>
        4 3 3 3</rect></_>
    <_>
      <rect>
        4 9 2 2</rect></_>
    <_>
      <rect>
        4 11 3 3</rect></_>
    <_>
      <rect>
        4 12 1 1</rect></_>
    <_>
      <rect>
        4 13 3 2</rect></_>
    <_>
      <rect>
        4 17 4 2</rect></_>
    <_>
      <rect>
        4 18 3 1</rect></_>
    <_>
      <rect>
        4 18 4 2</rect></_>
    <_>
      <rect>
        5 2 4 2</rect></_>
    <_>
      <rect>
        5 9 2 2</rect></_>
    <_>
      <rect>
        5 11 2 3</rect></_>
    <_>
      <rect>
        5 15 3 2</rect></_>
    <_>
      <rect>
        6 2 3 3</rect></_>
    <_>
      <rect>
        6 6 3 3</rect></_>
    <_>
      <rect>
        6 9 1 2</rect></_>
    <_>
      <rect>
        6 10 2 2</rect></_>
    <_>
      <rect>
        6 11 3 3</rect></_>
    <_>
      <rect>
        6 15 4 3</rect></_>
    <_>
      <rect>
        6 18 2 2</rect></_>
    <_>
      <rect>
        7 7 2 3</rect></_>
    <_>
      <rect>
        7 10 2 2</rect></_>
    <_>
      <rect>
        7 10 3 4</rect></_>
    <_>
      <rect>
        7 20 2 1</rect></_>
    <_>
      <rect>
        8 9 3 3</rect></_>
    <_>
      <rect>
        9 3 2 3</rect></_>
    <_>
      <rect>
        9 17 2 1</rect></_>
    <_>
      <rect>
        9 17 3 2</rect></_>
    <_>
      <rect>
        9 18 2 1</rect></_>
    <_>
      <rect>
        9 19 1 1</rect></_>
    <_>
      <rect>
        10 3 3 3</rect></_>
    <_>
      <rect>
        10 6 2 3</rect></_>
    <_>
      <rect>
        10 7 1 1</rect></_>
    <_>
      <rect>
        10 9 3 3</rect></_>
    <_>
      <rect>
        10 14 3 2</rect></_>
    <_>
      <rect>
        10 17 4 2</rect></_>
    <_>
      <rect>
        11 0 4 3</rect></_>
    <_>
      <rect>
        11 4 2 2</rect></_>
    <_>
      <rect>
        11 5 1 1</rect></_>
    <_>
      <rect>
        11 5 3 2</rect></_>
    <_>
      <rect>
        11 7 1 1</rect></_>
    <_>
      <rect>
        11 9 3 3</rect></_>
    <_>
      <rect>
        11 10 4 4</rect></_>
    <_>
      <rect>
        11 15 3 2</rect></_>
    <_>
      <rect>
        11 18 3 2</rect></_>
    <_>
      <rect>
        11 18 4 2</rect></_>
    <_>
      <rect>
        11 19 1 1</rect></_>
    <_>
      <rect>
        12 0 2 2</rect></_>
    <_>
      <rect>
        12 1 4 6</rect></_>
    <_>
      <rect>
        12 2 4 3</rect></_>
    <_>
      <rect>
        12 9 3 3</rect></_>
    <_>
      <rect>
        12 13 4 3</rect></_>
    <_>
      <rect>
        12 14 3 2</rect></_>
    <_>
      <rect>
        12 14 4 3</rect></_>
    <_>
      <rect>
        12 15 4 3</rect></_>
    <_>
      <rect>
        12 16 2 2</rect></_>
    <_>
      <rect>
        13 8 3 4</rect></_>
    <_>
      <rect>
        13 12 2 2</rect></_>
    <_>
      <rect>
        13 18 1 1</rect></_>
    <_>
      <rect>
        13 19 1 1</rect></_>
    <_>
      <rect>
        14 11 3 3</rect></_>
    <_>
      <rect>
        14 13 2 2</rect></_>
    <_>
      <rect>
        14 14 2 2</rect></_>
    <_>
      <rect>
        14 20 1 1</rect></_>
    <_>
      <rect>
        15 10 2 2</rect></_>
    <_>
      <rect>
        15 10 3 3</rect></_>
    <_>
      <rect>
        15 12 2 2</rect></_>
    <_>
      <rect>
        15 16 1 2</rect></_>
    <_>
      <rect>
        15 17 1 1</rect></_>
    <_>
      <rect>
        16 11 2 2</rect></_>
    <_>
      <rect>
        18 2 2 2</rect></_>
    <_>
      <rect>
        18 2 2 3</rect></_>
    <_>
      <rect>
        18 10 1 2</rect></_>
    <_>
      <rect>
        18 10 2 2</rect></_>
    <_>
      <rect>
        18 11 1 2</rect></_>
    <_>
      <rect>
        18 14 2 3</rect></_>
    <_>
      <rect>
        18 17 2 2</rect></_>
    <_>
      <rect>
        19 10 1 2</rect></_>
    <_>
      <rect>
        19 11 1 2</rect></_>
    <_>
      <rect>
        19 12 1 3</rect></_>
    <_>
      <rect>
        19 17 1 1</rect></_>
    <_>
      <rect>
        21 3 1 2</rect></_>
    <_>
      <rect>
        21 19 1 1</rect></_></features></cascade>
</opencv_storage>
