<?xml version="1.0"?>
<opencv_storage>
<stage1>
  <maxWeakCount>10</maxWeakCount>
  <stageThreshold>-1.6635977029800415e+00</stageThreshold>
  <weakClassifiers>
    <_>
      <internalNodes>
        0 -1 2067 -3278898 -114 -1073741985 -16529 -1317458 -3149938
        -2097409 -45748470</internalNodes>
      <leafValues>
        -5.1039052009582520e-01 4.5904853940010071e-01</leafValues></_>
    <_>
      <internalNodes>
        0 -1 3197 1425899511 -1 2147475455 -33587201 1442807229 -32769
        2113372159 -35998</internalNodes>
      <leafValues>
        -3.5423785448074341e-01 5.9550011157989502e-01</leafValues></_>
    <_>
      <internalNodes>
        0 -1 6755 -133359 910639 -134219969 -570430033 -6292037 13625343
        -704654151 16765369</internalNodes>
      <leafValues>
        -5.2024412155151367e-01 3.3793094754219055e-01</leafValues></_>
    <_>
      <internalNodes>
        0 -1 1280 -20482 -1498501458 -856101700 -1850015814 -1880191524
        -1932751106 -1921131299 -570425345</internalNodes>
      <leafValues>
        -3.5268884897232056e-01 4.0305453538894653e-01</leafValues></_>
    <_>
      <internalNodes>
        0 -1 8133 -1059664146 1087303663 -622678290 551692974 -463478962
        1164967887 -16799026 -150995233</internalNodes>
      <leafValues>
        -4.8649346828460693e-01 2.5958025455474854e-01</leafValues></_>
    <_>
      <internalNodes>
        0 -1 7075 1027350325 796818041 -1073872905 -41475 -1107896835
        -1346633729 -1073840131 -1355270660</internalNodes>
      <leafValues>
        -4.0076789259910583e-01 3.1911394000053406e-01</leafValues></_>
    <_>
      <internalNodes>
        0 -1 5363 -88436936 -82120 -69206051 -8552900 -637547011
        -100941825 -553858404 -873918976</internalNodes>
      <leafValues>
        -4.4440725445747375e-01 2.8477501869201660e-01</leafValues></_>
    <_>
      <internalNodes>
        0 -1 215 -70582286 -69210193 1528991535 -276877557 -548143186
        -1418727540 -768213725 1363611462</internalNodes>
      <leafValues>
        -4.4897082448005676e-01 2.4417889118194580e-01</leafValues></_>
    <_>
      <internalNodes>
        0 -1 1898 -265497 -285524177 -891329950 -521405761 -135042205
        108261309 -168856252 -202377353</internalNodes>
      <leafValues>
        -3.6387789249420166e-01 3.0335310101509094e-01</leafValues></_>
    <_>
      <internalNodes>
        0 -1 1286 -831609678 -47674232 -859299073 -544594390 -1103101784
        -360119276 184289791 -72610271</internalNodes>
      <leafValues>
        -3.9384573698043823e-01 2.6728224754333496e-01</leafValues></_></weakClassifiers></stage1>
</opencv_storage>
