<?xml version="1.0"?>
<opencv_storage>
<stage2>
  <maxWeakCount>14</maxWeakCount>
  <stageThreshold>-1.8236812353134155e+00</stageThreshold>
  <weakClassifiers>
    <_>
      <internalNodes>
        0 -1 6051 -1080049665 892970943 -131073 -33554433 -1934643265
        -1917276242 -1140981763 501088255</internalNodes>
      <leafValues>
        -4.4913730025291443e-01 4.3256402015686035e-01</leafValues></_>
    <_>
      <internalNodes>
        0 -1 6498 -1 -3345 -1 -2049 1087238779 1124037471 1373598523
        1080554102</internalNodes>
      <leafValues>
        -4.6337094902992249e-01 3.7157297134399414e-01</leafValues></_>
    <_>
      <internalNodes>
        0 -1 2753 -581962356 -10489905 -134301769 -2248785 1808601263
        -2107410 -170001 -37364274</internalNodes>
      <leafValues>
        -3.6636430025100708e-01 3.8638037443161011e-01</leafValues></_>
    <_>
      <internalNodes>
        0 -1 3074 -18690862 -311174 -118466885 1932722738 -27833087
        2138526839 -2097153 -8948877</internalNodes>
      <leafValues>
        -3.8420712947845459e-01 3.4655812382698059e-01</leafValues></_>
    <_>
      <internalNodes>
        0 -1 645 -1141129768 -1347121178 -10629864 -1275883610 29133999
        148380986 83217868 502652159</internalNodes>
      <leafValues>
        -4.0137472748756409e-01 3.1509599089622498e-01</leafValues></_>
    <_>
      <internalNodes>
        0 -1 6680 -19925071 1174273936 -458620931 -1061094176 -436735599
        32502173 -134237799 26214367</internalNodes>
      <leafValues>
        -4.8065191507339478e-01 2.0565946400165558e-01</leafValues></_>
    <_>
      <internalNodes>
        0 -1 3185 1175323119 2078272507 -536972801 -46379222 82054396
        -8553219 1926503164 2067035972</internalNodes>
      <leafValues>
        -4.1221618652343750e-01 2.5183257460594177e-01</leafValues></_>
    <_>
      <internalNodes>
        0 -1 1171 -21234159 -846233821 -1124208528 -521800683 -199549819
        -1070598377 286209269 -756550571</internalNodes>
      <leafValues>
        -3.4245494008064270e-01 2.8740352392196655e-01</leafValues></_>
    <_>
      <internalNodes>
        0 -1 793 269489424 823169840 -42672133 -1080025150 -193153027
        -1678181411 -33685508 -57646800</internalNodes>
      <leafValues>
        -5.0853276252746582e-01 2.0153373479843140e-01</leafValues></_>
    <_>
      <internalNodes>
        0 -1 6759 -552683596 27306031 -541624585 1899079343 -1779657812
        -1985180787 2079824315 435026939</internalNodes>
      <leafValues>
        -4.0183106064796448e-01 2.1695572137832642e-01</leafValues></_>
    <_>
      <internalNodes>
        0 -1 6195 -483178731 -547201 -139001857 -41963585 -1665154851
        -33577729 -2072251139 -96469193</internalNodes>
      <leafValues>
        -2.2338506579399109e-01 4.1043332219123840e-01</leafValues></_>
    <_>
      <internalNodes>
        0 -1 2563 -134254485 -284709021 -226505050 -218103953 -463552
        -2013931661 1165845879 -134217993</internalNodes>
      <leafValues>
        -2.9218414425849915e-01 3.2217955589294434e-01</leafValues></_>
    <_>
      <internalNodes>
        0 -1 4566 -463364 -12808466 -71353541 430835874 -17764919
        -10498309 788200891 1499409079</internalNodes>
      <leafValues>
        -3.2468321919441223e-01 2.7065789699554443e-01</leafValues></_>
    <_>
      <internalNodes>
        0 -1 7575 -1050844 -1049759960 -287937738 -1606709712 -210786392
        1200422813 -975194739 -706879603</internalNodes>
      <leafValues>
        -3.3986121416091919e-01 2.6791667938232422e-01</leafValues></_></weakClassifiers></stage2>
</opencv_storage>
