<?xml version="1.0"?>
<opencv_storage>
<stage3>
  <maxWeakCount>16</maxWeakCount>
  <stageThreshold>-1.7301174402236938e+00</stageThreshold>
  <weakClassifiers>
    <_>
      <internalNodes>
        0 -1 534 -2587 -1913657881 1357627520 1089468616 2113928655
        94238511 1373455567 1357903855</internalNodes>
      <leafValues>
        -4.8199856281280518e-01 3.2655408978462219e-01</leafValues></_>
    <_>
      <internalNodes>
        0 -1 6775 -1656752195 -1074790531 -1073741827 -4194625
        1023344639 -1929576449 502609340 436153784</internalNodes>
      <leafValues>
        -4.7306251525878906e-01 3.1439912319183350e-01</leafValues></_>
    <_>
      <internalNodes>
        0 -1 6225 -33555081 -36307083 2130182141 -101318665 -570434315
        -570557441 1970656256 -265027725</internalNodes>
      <leafValues>
        -3.9911499619483948e-01 3.4543955326080322e-01</leafValues></_>
    <_>
      <internalNodes>
        0 -1 1346 -1079255041 1061035903 -1084276737 1060822907
        -1346699297 -1078370305 -1610694983 -1370719747</internalNodes>
      <leafValues>
        -3.0523023009300232e-01 3.6779609322547913e-01</leafValues></_>
    <_>
      <internalNodes>
        0 -1 1316 1599133678 2104881151 1071398846 2143271865 1189915848
        2012606462 1723173823 2147352571</internalNodes>
      <leafValues>
        -3.9243841171264648e-01 2.6430356502532959e-01</leafValues></_>
    <_>
      <internalNodes>
        0 -1 3332 -991132504 -131073 -1646293161 -538185741 -1628918275
        -1347433491 -285651219 -304757436</internalNodes>
      <leafValues>
        -4.0289279818534851e-01 2.2219318151473999e-01</leafValues></_>
    <_>
      <internalNodes>
        0 -1 6977 -974130699 86637473 -587344679 -996815395 1440609585
        151715641 1884402491 1703871</internalNodes>
      <leafValues>
        -4.4475355744361877e-01 2.3027624189853668e-01</leafValues></_>
    <_>
      <internalNodes>
        0 -1 4149 1862143743 2003480302 -16830467 435954432 1846562552
        1987202918 -21987333 -4227265</internalNodes>
      <leafValues>
        -2.7675473690032959e-01 3.2655817270278931e-01</leafValues></_>
    <_>
      <internalNodes>
        0 -1 8395 -2000372746 -1077936302 -151520257 -1280905677
        -1359020611 -1073807370 -1367480391 -1604286464</internalNodes>
      <leafValues>
        -4.0948313474655151e-01 2.0977841317653656e-01</leafValues></_>
    <_>
      <internalNodes>
        0 -1 2638 -978907627 -8437793 -268476929 2105404714 1223760060
        -188627 -387661889 -1736862</internalNodes>
      <leafValues>
        -3.0381903052330017e-01 3.0536127090454102e-01</leafValues></_>
    <_>
      <internalNodes>
        0 -1 2487 -4239157 -1343609554 -50436163 -335544323 -1477461938
        74444670 -721473488 -676858571</internalNodes>
      <leafValues>
        -2.6302194595336914e-01 3.1273385882377625e-01</leafValues></_>
    <_>
      <internalNodes>
        0 -1 65 268436784 -1240449227 1064534002 933281710 -314278147
        -1347764229 -78100 -1952383456</internalNodes>
      <leafValues>
        -5.0500488281250000e-01 1.5737730264663696e-01</leafValues></_>
    <_>
      <internalNodes>
        0 -1 2350 -1291912258 -134480134 1918372110 -1280067411
        -671161624 1928646644 1196714287 1366403935</internalNodes>
      <leafValues>
        -4.1887074708938599e-01 1.7857758700847626e-01</leafValues></_>
    <_>
      <internalNodes>
        0 -1 7069 1009782324 -1347362979 -1073775171 -1342202451
        -1074069775 -1107632207 530275761 -1397224144</internalNodes>
      <leafValues>
        -4.5570912957191467e-01 1.7233219742774963e-01</leafValues></_>
    <_>
      <internalNodes>
        0 -1 7310 -8390860 -1985564892 -675293930 -1187254496 -171993672
        78640636 2013263256 10481592</internalNodes>
      <leafValues>
        -4.2235365509986877e-01 1.9293209910392761e-01</leafValues></_>
    <_>
      <internalNodes>
        0 -1 648 -292638792 -1178980818 -1405425126 -1586319614
        206341256 -1997010452 -1603154740 206896902</internalNodes>
      <leafValues>
        -4.3428698182106018e-01 1.7438140511512756e-01</leafValues></_></weakClassifiers></stage3>
</opencv_storage>
