<?xml version="1.0"?>
<opencv_storage>
<stage5>
  <maxWeakCount>20</maxWeakCount>
  <stageThreshold>-1.7114833593368530e+00</stageThreshold>
  <weakClassifiers>
    <_>
      <internalNodes>
        0 -1 7551 -134224077 1131413303 1362620978 12451647 -33554547
        13627211 2012215047 2013265887</internalNodes>
      <leafValues>
        -4.9163183569908142e-01 2.8654861450195312e-01</leafValues></_>
    <_>
      <internalNodes>
        0 -1 5681 393486332 -11010569 2147434429 -4243662 1004077051
        -1073971721 1025522104 1023934464</internalNodes>
      <leafValues>
        -4.9343597888946533e-01 2.6858547329902649e-01</leafValues></_>
    <_>
      <internalNodes>
        0 -1 1871 -8392721 -1347420178 1124058340 -1058017177
        -1611137201 75951943 1442305383 -973081129</internalNodes>
      <leafValues>
        -2.9758483171463013e-01 3.8990700244903564e-01</leafValues></_>
    <_>
      <internalNodes>
        0 -1 2066 -574230644 -12210417 -33763377 -3149873 -78683251
        -314242356 -11568947 -37446708</internalNodes>
      <leafValues>
        -3.5294181108474731e-01 2.9768109321594238e-01</leafValues></_>
    <_>
      <internalNodes>
        0 -1 6427 91197199 930883581 -134791377 -1385814490 -1929379857
        -1594572809 -279556 234737580</internalNodes>
      <leafValues>
        -3.9850920438766479e-01 2.1299690008163452e-01</leafValues></_>
    <_>
      <internalNodes>
        0 -1 7556 -1027037425 -976556305 -255808894 -1597462870
        -120721623 1142607113 -101598421 16645087</internalNodes>
      <leafValues>
        -5.1339983940124512e-01 1.2534500658512115e-01</leafValues></_>
    <_>
      <internalNodes>
        0 -1 4032 -17633302 -536965217 -8417345 199626250 -160563339
        -25166081 -86001603 1249840931</internalNodes>
      <leafValues>
        -3.3781796693801880e-01 2.7264177799224854e-01</leafValues></_>
    <_>
      <internalNodes>
        0 -1 697 -1099448449 -1619004289 -1075331099 -1075335313
        -1073807365 -1346421798 -1360805915 183336548</internalNodes>
      <leafValues>
        -3.3726444840431213e-01 2.2720897197723389e-01</leafValues></_>
    <_>
      <internalNodes>
        0 -1 5944 -782436560 -1041105504 -407961617 -638845189
        -168429775 1358157749 632231193 361330587</internalNodes>
      <leafValues>
        -4.1617873311042786e-01 1.7771595716476440e-01</leafValues></_>
    <_>
      <internalNodes>
        0 -1 3119 -496972280 -8434658 -152911937 1933577010 -146452875
        2136438389 -537440641 1996961652</internalNodes>
      <leafValues>
        -4.3923676013946533e-01 1.7869584262371063e-01</leafValues></_>
    <_>
      <internalNodes>
        0 -1 533 -5250397 -35652613 -185601498 -235934873 -135313757
        63956237 -505968757 1969225695</internalNodes>
      <leafValues>
        -2.5838491320610046e-01 2.9387468099594116e-01</leafValues></_>
    <_>
      <internalNodes>
        0 -1 4263 1090159616 1006567038 -721494675 -1097662606
        1425351781 -1074415566 1692669305 1069497122</internalNodes>
      <leafValues>
        -4.2843738198280334e-01 1.7277571558952332e-01</leafValues></_>
    <_>
      <internalNodes>
        0 -1 8255 1432223694 -270140573 1390879682 1622793179 -807362746
        1078263063 -671648673 -1059782665</internalNodes>
      <leafValues>
        -2.8083729743957520e-01 2.5537765026092529e-01</leafValues></_>
    <_>
      <internalNodes>
        0 -1 6523 1618407793 -981779593 2076367999 2134605347 -573117478
        1062358864 -178275381 1886758738</internalNodes>
      <leafValues>
        -3.3195483684539795e-01 2.1775399148464203e-01</leafValues></_>
    <_>
      <internalNodes>
        0 -1 3568 -318895362 -1040316854 1785856559 2037583370
        1781811277 1198702598 1461747583 2003251027</internalNodes>
      <leafValues>
        -3.6486035585403442e-01 1.8434068560600281e-01</leafValues></_>
    <_>
      <internalNodes>
        0 -1 3194 -101681347 989069049 -1381041153 -76611602 1927620093
        -25870380 -34639873 -94932206</internalNodes>
      <leafValues>
        -2.1315826475620270e-01 3.2752925157546997e-01</leafValues></_>
    <_>
      <internalNodes>
        0 -1 6212 91234173 2105350941 2136956735 494738943 -1745715779
        -9306145 402145221 1039929173</internalNodes>
      <leafValues>
        -3.6122378706932068e-01 1.8424029648303986e-01</leafValues></_>
    <_>
      <internalNodes>
        0 -1 7319 2108531744 65400421 -4239 -47205074 -1077936197
        72347567 -637809223 270492088</internalNodes>
      <leafValues>
        -3.9461782574653625e-01 1.5710845589637756e-01</leafValues></_>
    <_>
      <internalNodes>
        0 -1 667 -1080321192 985198574 -5771908 -1543618642 1056767979
        -1930134534 471712997 230543326</internalNodes>
      <leafValues>
        -3.2723125815391541e-01 2.0159155130386353e-01</leafValues></_>
    <_>
      <internalNodes>
        0 -1 73 -177106608 833732369 2111826457 -744021999 -134217735
        -469780577 2140143583 1140859394</internalNodes>
      <leafValues>
        -3.2976648211479187e-01 1.9740225374698639e-01</leafValues></_></weakClassifiers></stage5>
</opencv_storage>
