<?xml version="1.0"?>
<opencv_storage>
<stage6>
  <maxWeakCount>22</maxWeakCount>
  <stageThreshold>-1.6858532428741455e+00</stageThreshold>
  <weakClassifiers>
    <_>
      <internalNodes>
        0 -1 1231 -1050641 1194323951 -471338270 -202904089 -9437201
        122683359 -244320257 1476394927</internalNodes>
      <leafValues>
        -3.5553938150405884e-01 3.6332750320434570e-01</leafValues></_>
    <_>
      <internalNodes>
        0 -1 709 855587269 2139044949 2013216767 -34003032 1019035629
        2147352573 749027326 2142569384</internalNodes>
      <leafValues>
        -3.9961555600166321e-01 2.9038780927658081e-01</leafValues></_>
    <_>
      <internalNodes>
        0 -1 5808 -167772400 -1 -3 -13 -50335491 -48897 -94376932
        -231342571</internalNodes>
      <leafValues>
        -4.0290236473083496e-01 2.4245573580265045e-01</leafValues></_>
    <_>
      <internalNodes>
        0 -1 8129 -1041761334 -1419596886 -50372414 -465065238
        -855703794 88526402 1375728462 -673712297</internalNodes>
      <leafValues>
        -2.6819562911987305e-01 3.3733969926834106e-01</leafValues></_>
    <_>
      <internalNodes>
        0 -1 5671 2076770128 -8438785 1857469885 -541380650 987299256
        -1145372739 968367276 1494290816</internalNodes>
      <leafValues>
        -3.7584778666496277e-01 2.1760351955890656e-01</leafValues></_>
    <_>
      <internalNodes>
        0 -1 2816 -151060737 -828198917 -721420545 -863309910 -583008769
        -335954185 -340172817 -1058847514</internalNodes>
      <leafValues>
        -3.3432334661483765e-01 2.1206536889076233e-01</leafValues></_>
    <_>
      <internalNodes>
        0 -1 8177 -268550146 -1246724300 -1879298820 -1649664906
        -536936196 -1778574284 -1208485377 -369270918</internalNodes>
      <leafValues>
        -2.4414223432540894e-01 2.9628318548202515e-01</leafValues></_>
    <_>
      <internalNodes>
        0 -1 459 -12910956 -1153442731 -289735979 1084740725 386984880
        492667184 2137355764 1345699847</internalNodes>
      <leafValues>
        -3.3547741174697876e-01 2.1140691637992859e-01</leafValues></_>
    <_>
      <internalNodes>
        0 -1 5674 114199040 -1615282337 2143087861 -538544138 204445177
        -1661232261 431814005 501031536</internalNodes>
      <leafValues>
        -4.6953302621841431e-01 1.4296345412731171e-01</leafValues></_>
    <_>
      <internalNodes>
        0 -1 501 -210770302 -673251553 -251702592 1886388191 -1312853365
        -710950113 -260742643 -184682553</internalNodes>
      <leafValues>
        -2.7840858697891235e-01 2.4000568687915802e-01</leafValues></_>
    <_>
      <internalNodes>
        0 -1 696 -1075645448 -2047852846 -1481506893 -33698309
        -1207959571 -1938161953 268229817 -1998782020</internalNodes>
      <leafValues>
        -2.3616163432598114e-01 2.8258061408996582e-01</leafValues></_>
    <_>
      <internalNodes>
        0 -1 7292 -439421083 1162717003 -1629583614 -2132825206
        -607142983 30133785 -204210373 279832559</internalNodes>
      <leafValues>
        -3.8337078690528870e-01 1.6239158809185028e-01</leafValues></_>
    <_>
      <internalNodes>
        0 -1 5081 1448920368 -8391563 -71554113 -1069938238 -5778123
        -1246366159 -174246627 -172286277</internalNodes>
      <leafValues>
        -3.0483242869377136e-01 2.1273703873157501e-01</leafValues></_>
    <_>
      <internalNodes>
        0 -1 838 -8388874 -655873 -218275027 -9051281 -180884801 -660753
        -227294577 -252387156</internalNodes>
      <leafValues>
        -2.6532891392707825e-01 2.5548920035362244e-01</leafValues></_>
    <_>
      <internalNodes>
        0 -1 3622 -538048280 1677674191 1953660469 2072709635 -683523320
        1114072162 1602205615 2136437011</internalNodes>
      <leafValues>
        -3.3411055803298950e-01 1.9105295836925507e-01</leafValues></_>
    <_>
      <internalNodes>
        0 -1 5892 222301301 1576844917 1003879935 1927096186 -807183363
        -11585 -1078102033 1073552757</internalNodes>
      <leafValues>
        -2.9710969328880310e-01 2.0567339658737183e-01</leafValues></_>
    <_>
      <internalNodes>
        0 -1 6098 -1117680 -705430539 125728182 958543216 -84158997
        -1156123638 1976125211 1953551730</internalNodes>
      <leafValues>
        -3.5378602147102356e-01 1.7159497737884521e-01</leafValues></_>
    <_>
      <internalNodes>
        0 -1 5689 175116125 -42435075 -73884547 2019327199 762580180
        -25460867 -1393233940 -1166930312</internalNodes>
      <leafValues>
        -3.7385645508766174e-01 1.5608520805835724e-01</leafValues></_>
    <_>
      <internalNodes>
        0 -1 644 501211040 -2120421914 -242026572 -1060012600 232686465
        81042363 1157055589 1358518207</internalNodes>
      <leafValues>
        -3.9600282907485962e-01 1.5454220771789551e-01</leafValues></_>
    <_>
      <internalNodes>
        0 -1 6019 -1287306220 -984129628 -1107601549 -4555150 -237511237
        165665726 1973383352 280843452</internalNodes>
      <leafValues>
        -3.8278654217720032e-01 1.4585502445697784e-01</leafValues></_>
    <_>
      <internalNodes>
        0 -1 1444 1531224080 1932588027 -426186500 1964109587 -100804375
        -627843149 -60898080 -860590256</internalNodes>
      <leafValues>
        -3.4678369760513306e-01 1.7365586757659912e-01</leafValues></_>
    <_>
      <internalNodes>
        0 -1 2048 -481630720 -33753635 2001680685 -1612977994 273880907
        -23122195 1280654719 -101766657</internalNodes>
      <leafValues>
        -2.0240060985088348e-01 2.9050526022911072e-01</leafValues></_></weakClassifiers></stage6>
</opencv_storage>
