<?xml version="1.0"?>
<opencv_storage>
<stage5>
  <maxWeakCount>47</maxWeakCount>
  <stageThreshold>-1.4347229003906250e+00</stageThreshold>
  <weakClassifiers>
    <_>
      <internalNodes>
        0 -1 7715 9.3805253505706787e-02</internalNodes>
      <leafValues>
        -3.3771833777427673e-01 3.1513768434524536e-01</leafValues></_>
    <_>
      <internalNodes>
        0 -1 104252 6.7155107855796814e-02</internalNodes>
      <leafValues>
        -1.0760080814361572e-01 5.5964952707290649e-01</leafValues></_>
    <_>
      <internalNodes>
        0 -1 13391 6.0864998959004879e-03</internalNodes>
      <leafValues>
        8.7386600673198700e-02 -4.3972182273864746e-01</leafValues></_>
    <_>
      <internalNodes>
        0 -1 37451 1.0326933988835663e-04</internalNodes>
      <leafValues>
        -2.6010149717330933e-01 1.8461811542510986e-01</leafValues></_>
    <_>
      <internalNodes>
        0 -1 143680 8.3230528980493546e-03</internalNodes>
      <leafValues>
        -1.5998478233814240e-01 3.0142280459403992e-01</leafValues></_>
    <_>
      <internalNodes>
        0 -1 108334 2.9541365802288055e-02</internalNodes>
      <leafValues>
        5.7424988597631454e-02 -6.8518590927124023e-01</leafValues></_>
    <_>
      <internalNodes>
        0 -1 58455 7.5579836964607239e-02</internalNodes>
      <leafValues>
        -8.8947750627994537e-02 5.0602769851684570e-01</leafValues></_>
    <_>
      <internalNodes>
        0 -1 41934 -2.3774605989456177e-01</internalNodes>
      <leafValues>
        3.5766658186912537e-01 -1.1055056750774384e-01</leafValues></_>
    <_>
      <internalNodes>
        0 -1 121297 1.2076331040589139e-04</internalNodes>
      <leafValues>
        1.1207401752471924e-01 -3.7406370043754578e-01</leafValues></_>
    <_>
      <internalNodes>
        0 -1 29647 -6.3276675064116716e-05</internalNodes>
      <leafValues>
        1.8953648209571838e-01 -2.1489441394805908e-01</leafValues></_>
    <_>
      <internalNodes>
        0 -1 70644 4.3045432539656758e-04</internalNodes>
      <leafValues>
        6.9459512829780579e-02 -4.6133041381835938e-01</leafValues></_>
    <_>
      <internalNodes>
        0 -1 110128 -2.4756451603025198e-03</internalNodes>
      <leafValues>
        -7.2666573524475098e-01 4.4277995824813843e-02</leafValues></_>
    <_>
      <internalNodes>
        0 -1 133666 5.5855085520306602e-05</internalNodes>
      <leafValues>
        -2.2393752634525299e-01 1.5866447985172272e-01</leafValues></_>
    <_>
      <internalNodes>
        0 -1 111816 2.4005731102079153e-03</internalNodes>
      <leafValues>
        -1.2856079638004303e-01 2.5944000482559204e-01</leafValues></_>
    <_>
      <internalNodes>
        0 -1 29673 -5.6543601676821709e-03</internalNodes>
      <leafValues>
        1.9783948361873627e-01 -1.7541779577732086e-01</leafValues></_>
    <_>
      <internalNodes>
        0 -1 61660 2.8041838959325105e-05</internalNodes>
      <leafValues>
        -1.8156820535659790e-01 1.8776550889015198e-01</leafValues></_>
    <_>
      <internalNodes>
        0 -1 124265 -1.0001293849200010e-03</internalNodes>
      <leafValues>
        -3.9329627156257629e-01 9.1590188443660736e-02</leafValues></_>
    <_>
      <internalNodes>
        0 -1 29516 3.6409217864274979e-04</internalNodes>
      <leafValues>
        8.0024622380733490e-02 -3.7123984098434448e-01</leafValues></_>
    <_>
      <internalNodes>
        0 -1 12269 -2.0531266927719116e-03</internalNodes>
      <leafValues>
        2.0309665799140930e-01 -1.5695400536060333e-01</leafValues></_>
    <_>
      <internalNodes>
        0 -1 109343 -1.4235056005418301e-02</internalNodes>
      <leafValues>
        1.7802619934082031e-01 -1.8062520027160645e-01</leafValues></_>
    <_>
      <internalNodes>
        0 -1 57778 -1.3946441933512688e-02</internalNodes>
      <leafValues>
        2.3187090456485748e-01 -1.6400071978569031e-01</leafValues></_>
    <_>
      <internalNodes>
        0 -1 88168 3.0995436012744904e-02</internalNodes>
      <leafValues>
        -9.1979511082172394e-02 3.8093128800392151e-01</leafValues></_>
    <_>
      <internalNodes>
        0 -1 156216 2.5223214179277420e-02</internalNodes>
      <leafValues>
        -1.5151138603687286e-01 2.3947985470294952e-01</leafValues></_>
    <_>
      <internalNodes>
        0 -1 89219 1.5684477984905243e-02</internalNodes>
      <leafValues>
        -1.1625661700963974e-01 2.9042509198188782e-01</leafValues></_>
    <_>
      <internalNodes>
        0 -1 57255 7.7770035713911057e-03</internalNodes>
      <leafValues>
        8.5308142006397247e-02 -3.7339904904365540e-01</leafValues></_>
    <_>
      <internalNodes>
        0 -1 158099 8.8193186093121767e-04</internalNodes>
      <leafValues>
        5.4158795624971390e-02 -4.8683652281761169e-01</leafValues></_>
    <_>
      <internalNodes>
        0 -1 2139 2.3645772598683834e-03</internalNodes>
      <leafValues>
        -8.8507607579231262e-02 3.1829190254211426e-01</leafValues></_>
    <_>
      <internalNodes>
        0 -1 16307 -1.6827436047606170e-04</internalNodes>
      <leafValues>
        1.7525532841682434e-01 -2.0574486255645752e-01</leafValues></_>
    <_>
      <internalNodes>
        0 -1 157220 -1.0214562062174082e-03</internalNodes>
      <leafValues>
        -3.4429922699928284e-01 7.5153529644012451e-02</leafValues></_>
    <_>
      <internalNodes>
        0 -1 48193 -1.5963432379066944e-03</internalNodes>
      <leafValues>
        2.8025898337364197e-01 -9.3623802065849304e-02</leafValues></_>
    <_>
      <internalNodes>
        0 -1 59412 3.5211779177188873e-03</internalNodes>
      <leafValues>
        -1.1053086817264557e-01 2.4598555266857147e-01</leafValues></_>
    <_>
      <internalNodes>
        0 -1 72313 2.3685592168476433e-04</internalNodes>
      <leafValues>
        6.7740045487880707e-02 -3.7227252125740051e-01</leafValues></_>
    <_>
      <internalNodes>
        0 -1 129863 7.9122465103864670e-03</internalNodes>
      <leafValues>
        -7.7659003436565399e-02 3.6594319343566895e-01</leafValues></_>
    <_>
      <internalNodes>
        0 -1 86 2.9648263080161996e-05</internalNodes>
      <leafValues>
        -1.6690263152122498e-01 1.6172622144222260e-01</leafValues></_>
    <_>
      <internalNodes>
        0 -1 1262 -2.2436503786593676e-03</internalNodes>
      <leafValues>
        2.7791649103164673e-01 -1.0215250402688980e-01</leafValues></_>
    <_>
      <internalNodes>
        0 -1 140993 -5.4634669795632362e-03</internalNodes>
      <leafValues>
        1.7785878479480743e-01 -1.7328520119190216e-01</leafValues></_>
    <_>
      <internalNodes>
        0 -1 136031 -2.1266069263219833e-02</internalNodes>
      <leafValues>
        -6.6043782234191895e-01 4.5765575021505356e-02</leafValues></_>
    <_>
      <internalNodes>
        0 -1 30421 -4.1522346436977386e-02</internalNodes>
      <leafValues>
        -7.6121479272842407e-01 2.8264606371521950e-02</leafValues></_>
    <_>
      <internalNodes>
        0 -1 14418 6.7106843926012516e-04</internalNodes>
      <leafValues>
        5.2120935171842575e-02 -4.5976465940475464e-01</leafValues></_>
    <_>
      <internalNodes>
        0 -1 88468 -7.5507514178752899e-02</internalNodes>
      <leafValues>
        2.9268962144851685e-01 -1.0279761999845505e-01</leafValues></_>
    <_>
      <internalNodes>
        0 -1 47084 1.5395649243146181e-03</internalNodes>
      <leafValues>
        5.5048625916242599e-02 -4.8554876446723938e-01</leafValues></_>
    <_>
      <internalNodes>
        0 -1 117015 -3.6567910574376583e-03</internalNodes>
      <leafValues>
        -6.0551154613494873e-01 3.6523904651403427e-02</leafValues></_>
    <_>
      <internalNodes>
        0 -1 141633 2.0274794660508633e-03</internalNodes>
      <leafValues>
        -8.9630819857120514e-02 2.7636545896530151e-01</leafValues></_>
    <_>
      <internalNodes>
        0 -1 90076 1.1754245497286320e-03</internalNodes>
      <leafValues>
        1.1697334796190262e-01 -2.1804334223270416e-01</leafValues></_>
    <_>
      <internalNodes>
        0 -1 162200 1.5592030249536037e-03</internalNodes>
      <leafValues>
        -1.5919211506843567e-01 1.6060476005077362e-01</leafValues></_>
    <_>
      <internalNodes>
        0 -1 151851 1.1884414561791345e-04</internalNodes>
      <leafValues>
        -1.8889810144901276e-01 1.4608712494373322e-01</leafValues></_>
    <_>
      <internalNodes>
        0 -1 151828 7.5892265886068344e-04</internalNodes>
      <leafValues>
        7.6366528868675232e-02 -3.6765265464782715e-01</leafValues></_></weakClassifiers></stage5>
</opencv_storage>
