<?xml version="1.0"?>
<opencv_storage>
<stage0>
  <maxWeakCount>12</maxWeakCount>
  <stageThreshold>-1.4246176481246948e+00</stageThreshold>
  <weakClassifiers>
    <_>
      <internalNodes>
        0 -1 123635 -6.4567692577838898e-02</internalNodes>
      <leafValues>
        5.7489597797393799e-01 -5.2247530221939087e-01</leafValues></_>
    <_>
      <internalNodes>
        0 -1 134653 -3.6697920877486467e-03</internalNodes>
      <leafValues>
        4.1387298703193665e-01 -4.8140341043472290e-01</leafValues></_>
    <_>
      <internalNodes>
        0 -1 105769 -2.2647280246019363e-02</internalNodes>
      <leafValues>
        5.6231176853179932e-01 -2.8615891933441162e-01</leafValues></_>
    <_>
      <internalNodes>
        0 -1 41581 -9.2849917709827423e-03</internalNodes>
      <leafValues>
        4.3314158916473389e-01 -2.7086111903190613e-01</leafValues></_>
    <_>
      <internalNodes>
        0 -1 37451 1.0616226791171357e-04</internalNodes>
      <leafValues>
        -2.8839755058288574e-01 3.5621500015258789e-01</leafValues></_>
    <_>
      <internalNodes>
        0 -1 114004 3.7087453529238701e-03</internalNodes>
      <leafValues>
        -1.1968956142663956e-01 5.8980464935302734e-01</leafValues></_>
    <_>
      <internalNodes>
        0 -1 120961 -2.2305103484541178e-03</internalNodes>
      <leafValues>
        4.1706123948097229e-01 -1.8818397819995880e-01</leafValues></_>
    <_>
      <internalNodes>
        0 -1 81000 8.4992602933198214e-04</internalNodes>
      <leafValues>
        1.4362652599811554e-01 -5.1452678442001343e-01</leafValues></_>
    <_>
      <internalNodes>
        0 -1 79176 -2.9757637530565262e-02</internalNodes>
      <leafValues>
        2.7629566192626953e-01 -2.6173892617225647e-01</leafValues></_>
    <_>
      <internalNodes>
        0 -1 124119 -7.3044955730438232e-02</internalNodes>
      <leafValues>
        4.7277489304542542e-01 -1.8894609808921814e-01</leafValues></_>
    <_>
      <internalNodes>
        0 -1 65283 -1.2218143790960312e-02</internalNodes>
      <leafValues>
        3.2436493039131165e-01 -2.2847463190555573e-01</leafValues></_>
    <_>
      <internalNodes>
        0 -1 145374 1.9720769487321377e-03</internalNodes>
      <leafValues>
        -1.6648991405963898e-01 3.7639030814170837e-01</leafValues></_></weakClassifiers></stage0>
</opencv_storage>
